SVM-light Version V6.02
2 # kernel type
3 # kernel parameter -d 
1 # kernel parameter -g 
1 # kernel parameter -s 
1 # kernel parameter -r 
empty# kernel parameter -u 
19 # highest feature index 
636 # number of training documents 
49 # number of support vectors plus 1 
-0.81792728 # threshold b, each following line is a SV (starting with alpha*y)
-0.26724347594166109054469870898174 1:0.0043379995 2:0.0098719988 3:0.004162 4:0.0056579998 5:0.008338999 6:0.0041489997 7:0.0042369994 8:0.0042639989 9:0.011560999 10:0.80000001 11:0.80000001 12:0.82999998 13:0.82999998 14:0.82999998 15:0.81999999 16:0.81 17:0.81 18:0.81999999 19:0.82999998 #
0.22090260646581830195067652766738 1:1.170501 2:1.088998 3:1.116148 4:0.98523307 5:1.017557 6:1.046603 7:1.029598 8:1.3237 9:1.481485 17:0.79000002 #
-0.13692142847587121523567077474581 1:1.1149451 2:1.124922 3:1.0822541 4:1.060884 5:1.09969 6:1.007273 7:1.040154 8:1.225417 9:1.3802069 10:0.75 11:0.75 12:0.79000002 13:0.79000002 14:0.77999997 15:0.75999999 16:0.75 17:0.74000001 18:0.74000001 19:0.76999998 #
-0.091197381822694795205919149339024 1:0.0071859984 2:0.0044409987 5:0.0020539977 6:0.0036279978 7:0.0025009981 8:0.0056159981 9:0.0083489977 10:0.41999999 11:0.43000001 14:0.37 15:0.56 16:0.50999999 17:0.49000001 18:0.5 19:0.5 #
0.5335646598515141336704914465372 1:1.508257 2:1.409997 3:1.443558 4:1.3725791 5:1.3861821 6:1.32461 8:1.7113171 9:1.9737351 10:0.83999997 11:0.81 12:0.81 13:0.81 14:0.81 15:0.80000001 17:0.86000001 18:0.86000001 19:0.86000001 #
0.5335646598515141336704914465372 1:1.409997 2:1.443558 3:1.3725791 4:1.3861821 5:1.32461 7:1.3398551 8:1.585152 9:1.737249 10:0.81 11:0.81 12:0.81 13:0.81 14:0.80000001 16:0.80000001 17:0.83999997 18:0.85000002 19:0.87 #
0.47810544008843008922937656279828 1:1.3725791 2:1.3861821 3:1.32461 5:1.3398551 6:1.2857311 7:1.309376 8:1.5547529 9:1.763938 10:0.81 11:0.81 12:0.80000001 14:0.80000001 15:0.76999998 16:0.77999997 17:0.81 18:0.81999999 19:0.82999998 #
0.20649044547988920639269849743869 1:1.3330281 2:1.370699 3:1.318848 4:1.203402 5:1.192732 6:1.221151 7:1.018232 8:1.5104769 9:1.709286 10:0.80000001 11:0.82999998 12:0.80000001 13:0.80000001 14:0.77999997 15:0.79000002 16:0.70999998 17:0.81999999 18:0.81999999 19:0.82999998 #
0.45587908225134909923070836157422 1:1.443558 2:1.3725791 3:1.3861821 4:1.32461 6:1.3398551 7:1.2857311 8:1.559231 9:1.8599759 10:0.81 11:0.81 12:0.81 13:0.80000001 15:0.80000001 16:0.76999998 17:0.81 18:0.82999998 19:0.83999997 #
-0.36721369871633990911163891723845 2:0.0021319983 3:0.0021199982 4:0.0021289983 5:0.0022039986 7:0.012463999 8:0.004573998 9:0.0023989985 11:0.66000003 12:0.68000001 13:0.70999998 14:0.67000002 16:0.63999999 17:0.67000002 #
0.23030521126077652116492799905245 1:0.002185998 2:0.0027459979 3:0.0018519977 4:0.011823999 5:0.0018599977 6:0.001910998 7:0.002117998 8:0.0021909978 9:0.0041839979 10:0.61000001 11:0.60000002 12:0.56 13:0.54000002 14:0.50999999 15:0.44999999 16:0.47 17:0.57999998 18:0.62 19:0.62 #
0.39665954076775583603264863086224 2:1.3398551 3:1.2857311 4:1.309376 5:1.250445 6:1.276693 7:1.4237469 8:1.509405 9:1.656848 11:0.80000001 12:0.76999998 13:0.77999997 14:0.75 15:0.81 16:0.81999999 17:0.80000001 #
0.46730810842322051401609428467054 1:1.32461 3:1.3398551 4:1.2857311 5:1.309376 6:1.250445 7:1.276693 10:0.80000001 12:0.80000001 13:0.76999998 14:0.77999997 15:0.75 16:0.81 17:0.81 18:0.81999999 19:0.81999999 #
0.41843436717150955805877288185002 1:1.3861821 2:1.32461 4:1.3398551 5:1.2857311 6:1.309376 7:1.250445 8:1.509925 9:1.683 10:0.81 11:0.80000001 13:0.80000001 14:0.76999998 15:0.77999997 16:0.75 17:0.81 18:0.81 19:0.81999999 #
0.094118843059715295851219707401469 1:1.117602 2:1.099635 3:1.040387 4:1.1870869 5:1.174696 6:1.170501 7:1.088998 8:1.267302 9:1.483369 10:0.76999998 11:0.75999999 12:0.70999998 13:0.79000002 14:0.79000002 17:0.76999998 18:0.81 19:0.81999999 #
-0.18314942632045561055065263644792 1:0.004430999 2:0.0047749989 3:0.014331999 4:0.0050919987 5:0.0046289992 6:0.0055769989 7:0.0046599992 8:0.011477999 9:0.016808998 10:0.77999997 11:0.81 12:0.82999998 17:0.81 18:0.81 19:0.80000001 #
8.8254378804997202223603380843997e-09 1:0.0017999979 2:0.0018249978 3:0.0018849976 4:0.002185998 5:0.0027459979 6:0.0018519977 7:0.011823999 8:0.0017129978 9:0.0018079978 10:0.67000002 11:0.55000001 12:0.57999998 13:0.61000001 14:0.60000002 15:0.56 16:0.54000002 17:0.70999998 18:0.70999998 19:0.73000002 #
0.5335646598515141336704914465372 2:0.0020229984 3:0.0021569983 4:0.0020549991 5:0.0021099991 6:0.0050719981 7:0.0083749983 8:0.013134 9:0.010609999 17:0.70999998 #
0.1954653707409126917049491112266 1:1.174696 2:1.170501 3:1.088998 4:1.116148 5:0.98523307 6:1.017557 7:1.046603 8:1.280144 9:1.501739 10:0.79000002 17:0.79000002 18:0.79000002 19:0.80000001 #
-0.5335646598515141336704914465372 1:0.0041789995 2:0.0043379995 3:0.0098719988 4:0.004162 5:0.0056579998 6:0.008338999 7:0.0041489997 8:0.0042539993 9:0.013611 17:0.79000002 #
-0.142268711379997025989752046371 1:0.0050919987 2:0.0046289992 3:0.0055769989 4:0.0046599992 5:0.0047149984 6:0.0092269992 7:0.0041769999 8:0.0052429992 9:0.018676 17:0.82999998 #
-0.37887409734738669575548897228146 1:0.0022319981 3:0.0021319983 4:0.0021199982 5:0.0021289983 6:0.0022039986 10:0.67000002 12:0.66000003 13:0.68000001 14:0.70999998 15:0.67000002 17:0.69 18:0.70999998 19:0.72000003 #
-0.38380737242875551107346154822153 1:0.0021599983 2:0.0022319981 4:0.0021319983 5:0.0021199982 6:0.0021289983 7:0.0022039986 8:0.0022089982 9:0.0022469985 10:0.69 11:0.67000002 13:0.66000003 14:0.68000001 15:0.70999998 16:0.67000002 17:0.75 18:0.77999997 19:0.75 #
0.16325259087200028051967137798783 1:0.90817803 3:0.0020229984 4:0.0021569983 5:0.0020549991 6:0.0021099991 7:0.0050719981 10:0.70999998 17:0.5 18:0.51999998 19:0.51999998 #
-0.26401537461082058566574914948433 2:0.0025879995 3:0.0027629987 4:0.0028739991 5:0.0020239989 6:0.0022129987 7:0.002181998 8:0.0022409987 9:0.0022739982 11:0.69 12:0.66000003 13:0.5 14:0.47 15:0.72000003 16:0.60000002 17:0.47999999 #
-0.12478204302418262339191556975493 3:0.0020539977 4:0.0036279978 5:0.0025009981 6:0.0026739982 7:0.0028639978 12:0.37 13:0.56 14:0.50999999 15:0.55000001 16:0.44999999 17:0.43000001 #
-0.22469438255200230303287867172912 1:0.0041709989 2:0.0042859991 3:0.0041789995 4:0.0043379995 5:0.0098719988 6:0.004162 7:0.0056579998 8:0.0041609989 9:0.007997999 10:0.81 11:0.79000002 17:0.81 18:0.81999999 19:0.82999998 #
0.5335646598515141336704914465372 1:0.0027459979 2:0.0018519977 3:0.011823999 4:0.0018599977 5:0.001910998 6:0.002117998 7:0.002800998 8:0.0030079982 9:0.0030229983 10:0.60000002 11:0.56 12:0.54000002 13:0.50999999 14:0.44999999 15:0.47 16:0.44 17:0.61000001 18:0.61000001 19:0.63999999 #
-0.39980330049927925717412335870904 1:0.0033439992 2:0.0021599983 3:0.0022319981 5:0.0021319983 6:0.0021199982 7:0.0021289983 8:0.0024469984 9:0.0025939988 10:0.75 11:0.69 12:0.67000002 14:0.66000003 15:0.68000001 16:0.70999998 17:0.64999998 18:0.69 19:0.76999998 #
-0.26627578116087430304403937952884 1:0.0055389991 2:0.0043169986 3:0.0041809995 4:0.0041709989 5:0.0042859991 6:0.0041789995 7:0.0043379995 8:0.01547 9:0.017561 10:0.82999998 11:0.81999999 12:0.81 13:0.81 14:0.79000002 17:0.80000001 18:0.81 19:0.82999998 #
-0.40233816855389126221353990331409 1:0.0019049979 2:0.0033439992 3:0.0021599983 4:0.0022319981 6:0.0021319983 7:0.0021199982 8:0.0021399986 9:0.0022089987 10:0.64999998 11:0.75 12:0.69 13:0.67000002 15:0.66000003 16:0.68000001 17:0.5 18:0.52999997 19:0.54000002 #
-0.16340064470416282293996346197673 1:0.0044409987 4:0.0020539977 5:0.0036279978 6:0.0025009981 7:0.0026739982 10:0.43000001 13:0.37 14:0.56 15:0.50999999 16:0.55000001 17:0.41999999 18:0.43000001 19:0.44999999 #
-0.41883297422384935249084492170368 1:0.0047269976 3:0.0029279976 4:0.0018449979 5:0.0018769979 6:0.0021229978 17:0.44999999 #
0.28132864136599322613108142832061 1:0.0020329978 2:0.0022249983 3:0.0025759977 4:0.002794998 5:0.012869998 6:0.0031099976 7:0.0047369981 8:0.0021129979 9:0.002302998 10:0.60000002 11:0.52999997 12:0.61000001 13:0.5 14:0.5 15:0.54000002 16:0.47999999 17:0.69 18:0.69 19:0.70999998 #
-0.21491476533849204755277639833366 1:0.014158 2:0.0043759993 3:0.0044269995 4:0.004430999 5:0.0047749989 6:0.014331999 7:0.0050919987 8:0.010782999 9:0.01792 10:0.79000002 11:0.80000001 12:0.81 13:0.77999997 14:0.81 15:0.82999998 17:0.76999998 18:0.79000002 19:0.81 #
0.093764347891993143901956386798702 1:1.2857311 2:1.309376 3:1.250445 4:1.276693 5:1.4237469 6:1.3330281 7:1.370699 8:1.457361 9:1.6827719 10:0.76999998 11:0.77999997 12:0.75 13:0.81 14:0.81999999 15:0.80000001 16:0.82999998 17:0.80000001 18:0.81 19:0.81999999 #
0.046146865630648833955795851125004 1:1.040387 2:1.1870869 3:1.174696 4:1.170501 5:1.088998 6:1.116148 7:0.98523307 8:1.125514 9:1.301156 10:0.70999998 11:0.79000002 12:0.79000002 17:0.75999999 18:0.73000002 19:0.75999999 #
-0.25838558983929404977430976941832 1:0.0044269995 2:0.004430999 3:0.0047749989 4:0.014331999 5:0.0050919987 6:0.0046289992 7:0.0055769989 8:0.007577999 9:0.017073998 10:0.81 11:0.77999997 12:0.81 13:0.82999998 17:0.80000001 18:0.81 19:0.81999999 #
-0.3987555031340733191491665365902 1:0.014331999 2:0.0050919987 3:0.0046289992 4:0.0055769989 5:0.0046599992 6:0.0047149984 7:0.0092269992 8:0.014463998 9:0.027154997 10:0.82999998 17:0.81 18:0.81 19:0.81 #
0.098337390774370536661308506154455 1:0.0018519977 2:0.011823999 3:0.0018599977 4:0.001910998 5:0.002117998 6:0.002800998 7:0.019713998 8:0.0019799978 9:0.0038799981 10:0.56 11:0.54000002 12:0.50999999 13:0.44999999 14:0.47 15:0.44 16:0.41999999 17:0.60000002 18:0.63 19:0.64999998 #
-0.20421616705679376813087344544329 1:0.0023829986 3:0.0025879995 4:0.0027629987 5:0.0028739991 6:0.0020239989 7:0.0022129987 10:0.47999999 12:0.69 13:0.66000003 14:0.5 15:0.47 16:0.72000003 17:0.56999999 18:0.56999999 19:0.60000002 #
-0.17251618674657975827102518451284 1:0.0019269983 2:0.0019049979 3:0.0033439992 4:0.0021599983 5:0.0022319981 7:0.0021319983 8:0.0018059978 9:0.0017849981 10:0.5 11:0.64999998 12:0.75 13:0.69 14:0.67000002 16:0.66000003 17:0.49000001 18:0.54000002 19:0.55000001 #
-0.019203954852652804774493233708199 1:0.0018449979 2:0.0018769979 3:0.0021229978 5:0.0025519978 6:0.0020329978 7:0.0022249983 8:0.0018269976 9:0.0018519977 10:0.63999999 11:0.55000001 12:0.54000002 14:0.69 15:0.60000002 16:0.52999997 17:0.44999999 18:0.49000001 19:0.5 #
-0.33903417570386956692018998182903 1:1.135137 2:1.1174719 3:1.104755 4:1.1893201 5:1.117602 6:1.099635 7:1.040387 8:1.195246 9:1.3266391 10:0.76999998 11:0.69999999 12:0.72000003 13:0.76999998 14:0.76999998 15:0.75999999 16:0.70999998 17:0.70999998 18:0.72000003 19:0.73000002 #
-0.13343640278014579081400370341726 1:0.0043279985 2:0.0022549978 3:0.001975998 4:0.0022169992 5:0.0023949989 6:0.0023779988 7:0.0021779982 8:0.0021609983 9:0.0025669988 10:0.58999997 11:0.73000002 12:0.66000003 17:0.5 18:0.51999998 19:0.54000002 #
0.38139965283168508758393500102102 1:1.018232 2:1.135137 3:1.1174719 4:1.104755 5:1.1893201 6:1.117602 7:1.099635 8:1.091204 9:1.258186 10:0.70999998 11:0.76999998 12:0.69999999 13:0.72000003 14:0.76999998 15:0.76999998 16:0.75999999 17:0.79000002 18:0.79000002 19:0.80000001 #
0.11120091365829223861716457122384 1:0.0018599977 2:0.001910998 3:0.002117998 4:0.002800998 5:0.019713998 6:0.019273998 7:0.019921999 8:0.0022189976 9:0.0020199982 10:0.50999999 11:0.44999999 12:0.47 13:0.44 14:0.41999999 15:0.33000001 16:0.37 17:0.54000002 18:0.55000001 19:0.54000002 #
0.015487600099788709218096016684285 1:1.099635 2:1.040387 3:1.1870869 4:1.174696 5:1.170501 6:1.088998 7:1.116148 8:1.220026 9:1.417138 10:0.75999999 11:0.70999998 12:0.79000002 13:0.79000002 17:0.76999998 18:0.75999999 19:0.79000002 #
